Language model created by QuickLM on Wed Jun  5 01:49:12 EDT 2019
Copyright (c) 1996-2010 Carnegie Mellon University and Alexander I. Rudnicky

The model is in standard ARPA format, designed by Doug Paul while he was at MITRE.

The code that was used to produce this language model is available in Open Source.
Please visit http://www.speech.cs.cmu.edu/tools/ for more information

The (fixed) discount mass is 0.5. The backoffs are computed using the ratio method.
This model based on a corpus of 31 sentences and 30 words

\data\
ngram 1=30
ngram 2=59
ngram 3=46

\1-grams:
-0.8431 </s> -0.3010
-0.8431 <s> -0.2314
-2.3345 BACKWARD -0.2337
-2.0334 CLOSE -0.2194
-2.3345 DELETE -0.2888
-2.3345 EIGHT -0.2337
-2.0334 EXIT -0.2266
-2.3345 FAST -0.2970
-1.5563 FILE -0.2337
-2.3345 FIVE -0.2337
-2.0334 FORWARD -0.2337
-2.3345 FOUR -0.2337
-2.3345 INNOVATIONS -0.2337
-2.3345 MOTION -0.2337
-2.3345 NINE -0.2337
-2.3345 ONE -0.2337
-2.0334 OPEN -0.2194
-2.0334 PAUSE -0.2825
-2.0334 PLAY -0.2825
-1.8573 RECORDING -0.2337
-1.8573 SESSION -0.2337
-2.3345 SEVEN -0.2337
-2.3345 SIX -0.2337
-2.3345 SLOW -0.2990
-2.3345 START -0.2950
-1.8573 STOP -0.2762
-2.3345 TEN -0.2337
-2.3345 THREE -0.2337
-2.3345 TWO -0.2337
-2.0334 VIRGO -0.2314

\2-grams:
-1.7924 <s> BACKWARD 0.0000
-1.4914 <s> CLOSE 0.0000
-1.7924 <s> DELETE 0.0000
-1.7924 <s> EIGHT 0.0000
-1.4914 <s> EXIT 0.0000
-1.7924 <s> FAST 0.0000
-1.7924 <s> FIVE 0.0000
-1.7924 <s> FORWARD 0.0000
-1.7924 <s> FOUR 0.0000
-1.7924 <s> NINE 0.0000
-1.7924 <s> ONE 0.0000
-1.4914 <s> OPEN 0.0000
-1.4914 <s> PAUSE 0.0000
-1.4914 <s> PLAY 0.0000
-1.7924 <s> SEVEN 0.0000
-1.7924 <s> SIX 0.0000
-1.7924 <s> SLOW 0.0000
-1.7924 <s> START 0.0000
-1.3153 <s> STOP 0.0000
-1.7924 <s> TEN 0.0000
-1.7924 <s> THREE 0.0000
-1.7924 <s> TWO 0.0000
-1.4914 <s> VIRGO 0.0000
-0.3010 BACKWARD </s> -0.3010
-0.6021 CLOSE </s> -0.3010
-0.6021 CLOSE FILE 0.0000
-0.3010 DELETE FILE 0.0000
-0.3010 EIGHT </s> -0.3010
-0.6021 EXIT </s> -0.3010
-0.6021 EXIT SESSION 0.0000
-0.3010 FAST FORWARD 0.0000
-0.3010 FILE </s> -0.3010
-0.3010 FIVE </s> -0.3010
-0.3010 FORWARD </s> -0.3010
-0.3010 FOUR </s> -0.3010
-0.3010 INNOVATIONS </s> -0.3010
-0.3010 MOTION </s> -0.3010
-0.3010 NINE </s> -0.3010
-0.3010 ONE </s> -0.3010
-0.6021 OPEN </s> -0.3010
-0.6021 OPEN FILE 0.0000
-0.6021 PAUSE FILE 0.0000
-0.6021 PAUSE RECORDING 0.0000
-0.6021 PLAY FILE 0.0000
-0.6021 PLAY RECORDING 0.0000
-0.3010 RECORDING </s> -0.3010
-0.3010 SESSION </s> -0.3010
-0.3010 SEVEN </s> -0.3010
-0.3010 SIX </s> -0.3010
-0.3010 SLOW MOTION 0.0000
-0.3010 START SESSION 0.0000
-0.7782 STOP FILE 0.0000
-0.7782 STOP RECORDING 0.0000
-0.7782 STOP SESSION 0.0000
-0.3010 TEN </s> -0.3010
-0.3010 THREE </s> -0.3010
-0.3010 TWO </s> -0.3010
-0.6021 VIRGO </s> -0.3010
-0.6021 VIRGO INNOVATIONS 0.0000

\3-grams:
-0.3010 <s> BACKWARD </s>
-0.6021 <s> CLOSE </s>
-0.6021 <s> CLOSE FILE
-0.3010 <s> DELETE FILE
-0.3010 <s> EIGHT </s>
-0.6021 <s> EXIT </s>
-0.6021 <s> EXIT SESSION
-0.3010 <s> FAST FORWARD
-0.3010 <s> FIVE </s>
-0.3010 <s> FORWARD </s>
-0.3010 <s> FOUR </s>
-0.3010 <s> NINE </s>
-0.3010 <s> ONE </s>
-0.6021 <s> OPEN </s>
-0.6021 <s> OPEN FILE
-0.6021 <s> PAUSE FILE
-0.6021 <s> PAUSE RECORDING
-0.6021 <s> PLAY FILE
-0.6021 <s> PLAY RECORDING
-0.3010 <s> SEVEN </s>
-0.3010 <s> SIX </s>
-0.3010 <s> SLOW MOTION
-0.3010 <s> START SESSION
-0.7782 <s> STOP FILE
-0.7782 <s> STOP RECORDING
-0.7782 <s> STOP SESSION
-0.3010 <s> TEN </s>
-0.3010 <s> THREE </s>
-0.3010 <s> TWO </s>
-0.6021 <s> VIRGO </s>
-0.6021 <s> VIRGO INNOVATIONS
-0.3010 CLOSE FILE </s>
-0.3010 DELETE FILE </s>
-0.3010 EXIT SESSION </s>
-0.3010 FAST FORWARD </s>
-0.3010 OPEN FILE </s>
-0.3010 PAUSE FILE </s>
-0.3010 PAUSE RECORDING </s>
-0.3010 PLAY FILE </s>
-0.3010 PLAY RECORDING </s>
-0.3010 SLOW MOTION </s>
-0.3010 START SESSION </s>
-0.3010 STOP FILE </s>
-0.3010 STOP RECORDING </s>
-0.3010 STOP SESSION </s>
-0.3010 VIRGO INNOVATIONS </s>

\end\
